digraph Tree {
node [shape=box] ;
0 [label="proline <= 755.0\ngini = 0.655\nsamples = 133\nvalue = [45, 54, 34]"] ;
1 [label="flavanoids <= 1.4\ngini = 0.495\nsamples = 84\nvalue = [2, 51, 31]"] ;
0 -> 1 [labeldistance=2.5, labelangle=45, headlabel="True"] ;
2 [label="color_intensity <= 3.625\ngini = 0.278\nsamples = 36\nvalue = [0, 6, 30]"] ;
1 -> 2 ;
3 [label="gini = 0.0\nsamples = 6\nvalue = [0, 6, 0]"] ;
2 -> 3 ;
4 [label="gini = 0.0\nsamples = 30\nvalue = [0, 0, 30]"] ;
2 -> 4 ;
5 [label="alcohol <= 13.175\ngini = 0.119\nsamples = 48\nvalue = [2, 45, 1]"] ;
1 -> 5 ;
6 [label="gini = 0.0\nsamples = 42\nvalue = [0, 42, 0]"] ;
5 -> 6 ;
7 [label="magnesium <= 98.5\ngini = 0.611\nsamples = 6\nvalue = [2, 3, 1]"] ;
5 -> 7 ;
8 [label="gini = 0.0\nsamples = 3\nvalue = [0, 3, 0]"] ;
7 -> 8 ;
9 [label="flavanoids <= 2.1\ngini = 0.444\nsamples = 3\nvalue = [2, 0, 1]"] ;
7 -> 9 ;
10 [label="gini = 0.0\nsamples = 1\nvalue = [0, 0, 1]"] ;
9 -> 10 ;
11 [label="gini = 0.0\nsamples = 2\nvalue = [2, 0, 0]"] ;
9 -> 11 ;
12 [label="flavanoids <= 2.165\ngini = 0.222\nsamples = 49\nvalue = [43, 3, 3]"] ;
0 -> 12 [labeldistance=2.5, labelangle=-45, headlabel="False"] ;
13 [label="hue <= 0.803\ngini = 0.48\nsamples = 5\nvalue = [0, 2, 3]"] ;
12 -> 13 ;
14 [label="gini = 0.0\nsamples = 3\nvalue = [0, 0, 3]"] ;
13 -> 14 ;
15 [label="gini = 0.0\nsamples = 2\nvalue = [0, 2, 0]"] ;
13 -> 15 ;
16 [label="color_intensity <= 3.435\ngini = 0.044\nsamples = 44\nvalue = [43, 1, 0]"] ;
12 -> 16 ;
17 [label="gini = 0.0\nsamples = 1\nvalue = [0, 1, 0]"] ;
16 -> 17 ;
18 [label="gini = 0.0\nsamples = 43\nvalue = [43, 0, 0]"] ;
16 -> 18 ;
}